<?xml version="1.0"?>
<opencv_storage>
<cascade>
  <stageType>BOOST</stageType>
  <featureType>LBP</featureType>
  <height>24</height>
  <width>24</width>
  <stageParams>
    <boostType>GAB</boostType>
    <minHitRate>9.9500000476837158e-01</minHitRate>
    <maxFalseAlarm>5.0000000000000000e-01</maxFalseAlarm>
    <weightTrimRate>9.4999999999999996e-01</weightTrimRate>
    <maxDepth>1</maxDepth>
    <maxWeakCount>100</maxWeakCount></stageParams>
  <featureParams>
    <maxCatCount>256</maxCatCount>
    <featSize>1</featSize></featureParams>
  <stageNum>32</stageNum>
  <stages>
    <!-- stage 0 -->
    <_>
      <maxWeakCount>3</maxWeakCount>
      <stageThreshold>-8.2173526287078857e-01</stageThreshold>
      <weakClassifiers>
        <_>
          <internalNodes>
            0 -1 11 -523774961 1141227521 32785 16859203 100361
            301990912 134328554 2076934795</internalNodes>
          <leafValues>
            -8.3892619609832764e-01 7.6576578617095947e-01</leafValues></_>
        <_>
          <internalNodes>
            0 -1 58 -788213749 84181059 83980 285327360 -1073512408
            268582913 536920620 -1546679677</internalNodes>
          <leafValues>
            -7.2023350000381470e-01 7.5021529197692871e-01</leafValues></_>
        <_>
          <internalNodes>
            0 -1 36 -496501681 -2071904253 0 -1073512429 -1744615422
            268436480 553656466 1464033467</internalNodes>
          <leafValues>
            -7.3302441835403442e-01 7.5967943668365479e-01</leafValues></_></weakClassifiers></_>
    <!-- stage 1 -->
    <_>
      <maxWeakCount>3</maxWeakCount>
      <stageThreshold>-8.3268439769744873e-01</stageThreshold>
      <weakClassifiers>
        <_>
          <internalNodes>
            0 -1 4 -1069297075 1342242819 -1056898989 1073841153
            1090555915 142671873 -1199537909 1944001327</internalNodes>
          <leafValues>
            -7.8014183044433594e-01 5.8823531866073608e-01</leafValues></_>
        <_>
          <internalNodes>
            0 -1 117 -1066154721 -2113731837 -939392640 268513472
            -1599419645 67111431 -1073577710 1520627587</internalNodes>
          <leafValues>
            -6.7405152320861816e-01 6.4353114366531372e-01</leafValues></_>
        <_>
          <internalNodes>
            0 -1 71 -1056316719 1358988297 16777241 -1832845175
            -1065135601 131 -2138955591 615375181</internalNodes>
          <leafValues>
            -6.9607371091842651e-01 6.6033190488815308e-01</leafValues></_></weakClassifiers></_>
    <!-- stage 2 -->
    <_>
      <maxWeakCount>4</maxWeakCount>
      <stageThreshold>-2.9857328534126282e-01</stageThreshold>
      <weakClassifiers>
        <_>
          <internalNodes>
            0 -1 3 -787488291 1363181595 67117077 -116195320 -2009036625
            -922189824 -897476433 823722531</internalNodes>
          <leafValues>
            -7.0297032594680786e-01 6.1290323734283447e-01</leafValues></_>
        <_>
          <internalNodes>
            0 -1 38 -2000314257 1091837952 1627389952 288981255
            -1069514729 137 1208670347 2074075279</internalNodes>
          <leafValues>
            -6.9310235977172852e-01 6.2116807699203491e-01</leafValues></_>
        <_>
          <internalNodes>
            0 -1 60 -796331627 1359659777 -2145320760 575799688
            1073842503 545902600 -1971222469 1661157451</internalNodes>
          <leafValues>
            -7.7124583721160889e-01 5.6920111179351807e-01</leafValues></_>
        <_>
          <internalNodes>
            0 -1 114 -1188064297 -2011684727 67112067 1211011073
            -2126404600 -2130509695 -636813269 748328635</internalNodes>
          <leafValues>
            -7.6139873266220093e-01 6.1371493339538574e-01</leafValues></_></weakClassifiers></_>
    <!-- stage 3 -->
    <_>
      <maxWeakCount>4</maxWeakCount>
      <stageThreshold>-1.9419281184673309e-01</stageThreshold>
      <weakClassifiers>
        <_>
          <internalNodes>
            0 -1 2 -968285325 -787406527 -2130702325 -1793392351
            1199693963 1757413510 -1878445941 1810850351</internalNodes>
          <leafValues>
            -7.4125874042510986e-01 5.6410259008407593e-01</leafValues></_>
        <_>
          <internalNodes>
            0 -1 112 73393983 -1610611691 1107443984 -1531786749
            1149452305 -2109562317 -1851031503 -1933523233</internalNodes>
          <leafValues>
            -7.2814315557479858e-01 6.0728371143341064e-01</leafValues></_>
        <_>
          <internalNodes>
            0 -1 78 -1005381329 -390037390 -1035910510 809533956
            -2145101026 -871964159 -2134470268 -643644373</internalNodes>
          <leafValues>
            -7.1774595975875854e-01 6.4184808731079102e-01</leafValues></_>
        <_>
          <internalNodes>
            0 -1 63 336693005 257673395 1612414993 2063671595 12820555
            -1559756790 -1432935545 -487802697</internalNodes>
          <leafValues>
            -6.4783310890197754e-01 7.4191325902938843e-01</leafValues></_></weakClassifiers></_>
    <!-- stage 4 -->
    <_>
      <maxWeakCount>4</maxWeakCount>
      <stageThreshold>-2.7784022688865662e-01</stageThreshold>
      <weakClassifiers>
        <_>
          <internalNodes>
            0 -1 55 -778448001 -922517119 587235521 -1035862010
            -1031780060 -1429665784 -1985556181 -442955102</internalNodes>
          <leafValues>
            -6.6891890764236450e-01 5.2678573131561279e-01</leafValues></_>
        <_>
          <internalNodes>
            0 -1 7 -49632677 -1861119219 1086685521 -1258141354
            424259723 1101039618 -1979474507 1761821275</internalNodes>
          <leafValues>
            -6.0988098382949829e-01 6.2203067541122437e-01</leafValues></_>
        <_>
          <internalNodes>
            0 -1 85 -1270815903 -1845423918 83972100 139527188
            -267310397 -1998585853 246407 11511986</internalNodes>
          <leafValues>
            -7.2467958927154541e-01 5.5112749338150024e-01</leafValues></_>
        <_>
          <internalNodes>
            0 -1 98 -783036726 1226932738 1073811474 302453159
            -536770557 1677918208 -1870561151 1116973931</internalNodes>
          <leafValues>
            -7.0197701454162598e-01 5.9581023454666138e-01</leafValues></_></weakClassifiers></_>
    <!-- stage 5 -->
    <_>
      <maxWeakCount>4</maxWeakCount>
      <stageThreshold>-3.5448426008224487e-01</stageThreshold>
      <weakClassifiers>
        <_>
          <internalNodes>
            0 -1 37 -872416465 2139061887 -956301313 -25198725
            2147450863 1577023479 2096619517 -1610613331</internalNodes>
          <leafValues>
            -5.8260869979858398e-01 6.9142854213714600e-01</leafValues></_>
        <_>
          <internalNodes>
            0 -1 105 -212762267 -1425927801 805314560 -264236701
            -384229247 -1606843902 591446668 -1598799669</internalNodes>
          <leafValues>
            -6.3230216503143311e-01 5.8673340082168579e-01</leafValues></_>
        <_>
          <internalNodes>
            0 -1 57 181625867 621740299 1073778710 2072320138
            -1593253524 1912733749 81830027 1935377035</internalNodes>
          <leafValues>
            -8.6278283596038818e-01 4.5550838112831116e-01</leafValues></_>
        <_>
          <internalNodes>
            0 -1 79 -2121399288 -2075099112 268714377 -796848119
            -1845423502 -1602214912 -903552638 -1593825615</internalNodes>
          <leafValues>
            -7.5140279531478882e-01 5.0417387485504150e-01</leafValues></_></weakClassifiers></_>
    <!-- stage 6 -->
    <_>
      <maxWeakCount>4</maxWeakCount>
      <stageThreshold>-1.2932282686233521e-01</stageThreshold>
      <weakClassifiers>
        <_>
          <internalNodes>
            0 -1 20 -281051305 -150994945 -1612185729 -4194306
            -805339153 -1074003977 -1073874947 -4776577</internalNodes>
          <leafValues>
            -5.9090906381607056e-01 7.6190477609634399e-01</leafValues></_>
        <_>
          <internalNodes>
            0 -1 41 -1757313571 -1189593067 -1811932353 -829815793
            -2113343319 -1186856264 1744915450 -1308614656</internalNodes>
          <leafValues>
            -6.9952195882797241e-01 6.0699558258056641e-01</leafValues></_>
        <_>
          <internalNodes>
            0 -1 10 1109260629 -997894105 1157660995 -1022241814
            -2147417533 -633290733 1219086984 1988122213</internalNodes>
          <leafValues>
            -7.1358460187911987e-01 5.6909513473510742e-01</leafValues></_>
        <_>
          <internalNodes>
            0 -1 67 -282488363 -721353465 16794645 -83158768 -2130083333
            -771096568 579096261 246826041</internalNodes>
          <leafValues>
            -7.0487850904464722e-01 5.9201312065124512e-01</leafValues></_></weakClassifiers></_>
    <!-- stage 7 -->
    <_>
      <maxWeakCount>3</maxWeakCount>
      <stageThreshold>-9.4432634115219116e-01</stageThreshold>
      <weakClassifiers>
        <_>
          <internalNodes>
            0 -1 106 1412686911 545866130 -1324810208 -1035778933
            -1592745850 -1069449216 1644249170 1356327115</internalNodes>
          <leafValues>
            -7.3431736230850220e-01 4.7791165113449097e-01</leafValues></_>
        <_>
          <internalNodes>
            0 -1 47 -1542512029 -787455718 -1879015156 620855809
            587287078 1350828041 768282818 -592140146</internalNodes>
          <leafValues>
            -7.4176073074340820e-01 5.5219227075576782e-01</leafValues></_>
        <_>
          <internalNodes>
            0 -1 8 -2117735612 1342267535 151027713 -518716796
            1074367372 840241281 -2104720500 1906778188</internalNodes>
          <leafValues>
            -7.6220124959945679e-01 5.4491144418716431e-01</leafValues></_></weakClassifiers></_>
    <!-- stage 8 -->
    <_>
      <maxWeakCount>4</maxWeakCount>
      <stageThreshold>-1.3525147438049316e+00</stageThreshold>
      <weakClassifiers>
        <_>
          <internalNodes>
            0 -1 115 -1311269 -1090650113 -33554561 1660944317
            2147483511 -1073741825 -129 -285285009</internalNodes>
          <leafValues>
            -5.5865919589996338e-01 7.4074071645736694e-01</leafValues></_>
        <_>
          <internalNodes>
            0 -1 65 -1069231337 542466195 -2063002662 1308660032
            -931100593 1367375874 146899074 968917018</internalNodes>
          <leafValues>
            -7.1052259206771851e-01 5.4836553335189819e-01</leafValues></_>
        <_>
          <internalNodes>
            0 -1 52 1766063635 1908978048 1073905874 1526747136
            -920125426 -1140800888 -1876418368 835547358</internalNodes>
          <leafValues>
            -7.4325054883956909e-01 5.4751628637313843e-01</leafValues></_>
        <_>
          <internalNodes>
            0 -1 102 -719219329 -1789918886 -2130542336 1838226450
            -1937126125 -788004735 -669136704 713188099</internalNodes>
          <leafValues>
            -6.3084918260574341e-01 6.4326167106628418e-01</leafValues></_></weakClassifiers></_>
    <!-- stage 9 -->
    <_>
      <maxWeakCount>4</maxWeakCount>
      <stageThreshold>-2.0185300707817078e-01</stageThreshold>
      <weakClassifiers>
        <_>
          <internalNodes>
            0 -1 26 -1055842273 -1878916855 336642309 -1669332992
            -872393073 -914340224 -893347415 -1470601105</internalNodes>
          <leafValues>
            -6.6225165128707886e-01 5.5045872926712036e-01</leafValues></_>
        <_>
          <internalNodes>
            0 -1 9 1074862483 -1069444781 83985 -258604893 134692901
            2293786 -1056748992 -77438413</internalNodes>
          <leafValues>
            -6.3767176866531372e-01 5.9702551364898682e-01</leafValues></_>
        <_>
          <internalNodes>
            0 -1 18 -535441995 -888958333 -2079784431 -515308622
            303179778 49539 1107708999 1459711695</internalNodes>
          <leafValues>
            -6.4028030633926392e-01 6.3656508922576904e-01</leafValues></_>
        <_>
          <internalNodes>
            0 -1 62 1671893625 -1051557297 134217792 -1811906294 416528
            -2113863540 -1035866557 -112024495</internalNodes>
          <leafValues>
            -7.0905691385269165e-01 5.7515484094619751e-01</leafValues></_></weakClassifiers></_>
    <!-- stage 10 -->
    <_>
      <maxWeakCount>4</maxWeakCount>
      <stageThreshold>-3.6310282349586487e-01</stageThreshold>
      <weakClassifiers>
        <_>
          <internalNodes>
            0 -1 48 -1327848239 -784199279 285769879 -728588288
            865108727 -1425489779 -1602125063 -1915713152</internalNodes>
          <leafValues>
            -6.9930070638656616e-01 5.1282054185867310e-01</leafValues></_>
        <_>
          <internalNodes>
            0 -1 80 236983823 -1861462636 84469841 -456982397
            -1342095008 -15726456 33859713 -825823097</internalNodes>
          <leafValues>
            -7.1335089206695557e-01 5.7749181985855103e-01</leafValues></_>
        <_>
          <internalNodes>
            0 -1 64 621133847 -1525245625 -1048573605 -2067724914
            -519544047 -393703412 -905433580 -2021293629</internalNodes>
          <leafValues>
            -7.6351135969161987e-01 5.3786945343017578e-01</leafValues></_>
        <_>
          <internalNodes>
            0 -1 110 16892215 -2080341357 -2108571632 1008582735
            -1052032811 1655832579 1544814723 -523704076</internalNodes>
          <leafValues>
            -6.8990379571914673e-01 6.6755515336990356e-01</leafValues></_></weakClassifiers></_>
    <!-- stage 11 -->
    <_>
      <maxWeakCount>2</maxWeakCount>
      <stageThreshold>-3.0888152122497559e-01</stageThreshold>
      <weakClassifiers>
        <_>
          <internalNodes>
            0 -1 113 353753527 -1564113102 -838787051 -1400854391
            1019383151 1753255937 -1190534289 1758220098</internalNodes>
          <leafValues>
            -8.1526106595993042e-01 4.5387452840805054e-01</leafValues></_>
        <_>
          <internalNodes>
            0 -1 30 194368511 50510255 -921878516 -1468301295 1208009037
            -1421402107 -494830220 1945154082</internalNodes>
          <leafValues>
            -7.6275604963302612e-01 6.0892379283905029e-01</leafValues></_></weakClassifiers></_>
    <!-- stage 12 -->
    <_>
      <maxWeakCount>4</maxWeakCount>
      <stageThreshold>-4.9314638972282410e-01</stageThreshold>
      <weakClassifiers>
        <_>
          <internalNodes>
            0 -1 1 1624013597 -1869539005 -2004740989 -1734548591
            -1065286235 -766836315 -511530231 1473606693</internalNodes>
          <leafValues>
            -8.5217392444610596e-01 4.0000000596046448e-01</leafValues></_>
        <_>
          <internalNodes>
            0 -1 23 1621313023 114294899 17895548 -576894768 -1736271703
            -1081571192 -2012968799 -1388306304</internalNodes>
          <leafValues>
            -6.4034992456436157e-01 6.9962006807327271e-01</leafValues></_>
        <_>
          <internalNodes>
            0 -1 48 -2124381025 -1744267835 2165116 -810151917
            -402020078 2023333929 -1070936729 -658241500</internalNodes>
          <leafValues>
            -7.3311191797256470e-01 6.1509495973587036e-01</leafValues></_>
        <_>
          <internalNodes>
            0 -1 86 134713815 557617627 -2130429535 -1399880549
            -955233708 -1877999478 -1069505917 606923776</internalNodes>
          <leafValues>
            -8.5965454578399658e-01 5.4818737506866455e-01</leafValues></_></weakClassifiers></_>
    <!-- stage 13 -->
    <_>
      <maxWeakCount>4</maxWeakCount>
      <stageThreshold>-3.5677489638328552e-01</stageThreshold>
      <weakClassifiers>
        <_>
          <internalNodes>
            0 -1 40 223376381 -2130640767 1884356999 -1882116071
            -1744812995 -1585266556 -1367012828 -863733212</internalNodes>
          <leafValues>
            -6.9863015413284302e-01 5.4385966062545776e-01</leafValues></_>
        <_>
          <internalNodes>
            0 -1 76 247199807 173332 -1006338039 751140895 -746297333
            -1164541944 -133378134 1687100096</internalNodes>
          <leafValues>
            -7.2642654180526733e-01 5.7201266288757324e-01</leafValues></_>
        <_>
          <internalNodes>
            0 -1 108 276844799 608407824 285573251 -1869807423
            1238472802 308314240 -668901114 618457126</internalNodes>
          <leafValues>
            -8.7971681356430054e-01 4.5815938711166382e-01</leafValues></_>
        <_>
          <internalNodes>
            0 -1 73 -1350582481 444301311 -167772162 -1166016642
            -25174081 1736441855 -17930 -1929904771</internalNodes>
          <leafValues>
            -5.9293043613433838e-01 7.5625699758529663e-01</leafValues></_></weakClassifiers></_>
    <!-- stage 14 -->
    <_>
      <maxWeakCount>4</maxWeakCount>
      <stageThreshold>-1.1211809515953064e-01</stageThreshold>
      <weakClassifiers>
        <_>
          <internalNodes>
            0 -1 42 -134304001 -16842753 -1 -1073741826 2146959359
            -1107296257 -17858562 -587200716</internalNodes>
          <leafValues>
            -5.2105265855789185e-01 8.4285712242126465e-01</leafValues></_>
        <_>
          <internalNodes>
            0 -1 50 -1072199907 268533905 -2071949053 -913012576
            1744877998 -1199505261 -931096512 683852848</internalNodes>
          <leafValues>
            -6.9315069913864136e-01 5.3340399265289307e-01</leafValues></_>
        <_>
          <internalNodes>
            0 -1 31 -1848403391 -1400766183 268435778 -977042969
            1107419371 -2142699389 369165324 -1371524288</internalNodes>
          <leafValues>
            -6.8758386373519897e-01 5.5120164155960083e-01</leafValues></_>
        <_>
          <internalNodes>
            0 -1 54 1191194697 -1710141286 -989236651 -394160096
            -1433843232 998246401 -938829294 -265772534</internalNodes>
          <leafValues>
            -6.7567110061645508e-01 6.2462133169174194e-01</leafValues></_></weakClassifiers></_>
    <!-- stage 15 -->
    <_>
      <maxWeakCount>4</maxWeakCount>
      <stageThreshold>-6.5785950422286987e-01</stageThreshold>
      <weakClassifiers>
        <_>
          <internalNodes>
            0 -1 61 1896976791 489226657 34343391 -481984512 1660985659
            -1464335705 1207997082 952631296</internalNodes>
          <leafValues>
            -6.6548043489456177e-01 4.4769874215126038e-01</leafValues></_>
        <_>
          <internalNodes>
            0 -1 5 1956782160 1350832805 1350631696 -2146189166
            1611186867 1476542606 -2109636478 1355893333</internalNodes>
          <leafValues>
            -8.1683999300003052e-01 4.1477093100547791e-01</leafValues></_>
        <_>
          <internalNodes>
            0 -1 118 2001392583 -2145255207 1091712 1078759688
            -536850245 -1165357055 1526841376 2126901969</internalNodes>
          <leafValues>
            -7.5241458415985107e-01 4.7891399264335632e-01</leafValues></_>
        <_>
          <internalNodes>
            0 -1 15 1569575800 826384705 19923075 1317011456 27418794
            536871042 1619019821 1979976388</internalNodes>
          <leafValues>
            -7.6791459321975708e-01 5.0188112258911133e-01</leafValues></_></weakClassifiers></_>
    <!-- stage 16 -->
    <_>
      <maxWeakCount>4</maxWeakCount>
      <stageThreshold>-3.5112607479095459e-01</stageThreshold>
      <weakClassifiers>
        <_>
          <internalNodes>
            0 -1 43 37910975 -721334007 1610649865 -979836784
            -1575951901 -1073597304 -880754262 -1959754981</internalNodes>
          <leafValues>
            -6.3987135887145996e-01 5.6937801837921143e-01</leafValues></_>
        <_>
          <internalNodes>
            0 -1 14 -246551678 -2147385328 805376017 -736559015 82440
            33652864 131072 1397801152</internalNodes>
          <leafValues>
            -7.1978819370269775e-01 4.3537208437919617e-01</leafValues></_>
        <_>
          <internalNodes>
            0 -1 72 1342185620 1359750145 263187 -1794571904 -2139054037
            -2147483518 33559179 -1190657536</internalNodes>
          <leafValues>
            -6.5145504474639893e-01 4.9266302585601807e-01</leafValues></_>
        <_>
          <internalNodes>
            0 -1 53 47817519 289521733 16777216 1435533313 -934713320
            -2147352576 -796353637 990419336</internalNodes>
          <leafValues>
            -6.3928979635238647e-01 6.4509433507919312e-01</leafValues></_></weakClassifiers></_>
    <!-- stage 17 -->
    <_>
      <maxWeakCount>4</maxWeakCount>
      <stageThreshold>-9.2415624856948853e-01</stageThreshold>
      <weakClassifiers>
        <_>
          <internalNodes>
            0 -1 101 -151080786 -277954562 -16843138 -93978634
            2139090263 15 -1879015034 -136348542</internalNodes>
          <leafValues>
            -5.5555558204650879e-01 7.5000000000000000e-01</leafValues></_>
        <_>
          <internalNodes>
            0 -1 92 -1877761920 -1069481856 4244 1359413265 32768 0
            -931134592 -2088558583</internalNodes>
          <leafValues>
            -5.6932562589645386e-01 7.1905666589736938e-01</leafValues></_>
        <_>
          <internalNodes>
            0 -1 77 -671370416 -286294033 -70660 -39125012 2080374134
            1061126143 -1073742347 -417403764</internalNodes>
          <leafValues>
            -4.6844223141670227e-01 7.8758519887924194e-01</leafValues></_>
        <_>
          <internalNodes>
            0 -1 81 2130656978 1723334462 -4353 -612466753 -41004
            -436732041 -168296464 -1690871940</internalNodes>
          <leafValues>
            -5.8686023950576782e-01 7.2827029228210449e-01</leafValues></_></weakClassifiers></_>
    <!-- stage 18 -->
    <_>
      <maxWeakCount>5</maxWeakCount>
      <stageThreshold>-3.9699590206146240e-01</stageThreshold>
      <weakClassifiers>
        <_>
          <internalNodes>
            0 -1 44 -335561857 -16810113 -257 -1073774593 -268476801
            -17533081 1878906613 -68173829</internalNodes>
          <leafValues>
            -5.4237288236618042e-01 6.7469877004623413e-01</leafValues></_>
        <_>
          <internalNodes>
            0 -1 91 -311459152 -109052161 -32770 1949204478 -134349371
            -402653313 2013216686 -1787136772</internalNodes>
          <leafValues>
            -4.6644905209541321e-01 7.2351199388504028e-01</leafValues></_>
        <_>
          <internalNodes>
            0 -1 29 -1006393225 -1409088639 -1879047927 1351090177
            -1199428486 -65003384 -1040053655 -2102867837</internalNodes>
          <leafValues>
            -5.6846719980239868e-01 6.0285586118698120e-01</leafValues></_>
        <_>
          <internalNodes>
            0 -1 88 -167554944 -2113863552 0 -1325137920 -1879015296
            -2139095032 1107361921 -2004156280</internalNodes>
          <leafValues>
            -6.1751186847686768e-01 6.4805716276168823e-01</leafValues></_>
        <_>
          <internalNodes>
            0 -1 46 1719656253 796917631 -285736977 -868481 -16566
            -302096394 -138543115 -1371932291</internalNodes>
          <leafValues>
            -5.6347906589508057e-01 6.6711223125457764e-01</leafValues></_></weakClassifiers></_>
    <!-- stage 19 -->
    <_>
      <maxWeakCount>3</maxWeakCount>
      <stageThreshold>-5.4003292322158813e-01</stageThreshold>
      <weakClassifiers>
        <_>
          <internalNodes>
            0 -1 25 1325399903 1879044095 -268452105 -402653327
            -329269313 2105375743 -1107298337 -621114869</internalNodes>
          <leafValues>
            -5.5428570508956909e-01 6.7058825492858887e-01</leafValues></_>
        <_>
          <internalNodes>
            0 -1 51 -947527637 -1789231025 16861077 -2145582846
            -788475894 -1059979239 402819789 2042134542</internalNodes>
          <leafValues>
            -5.7950592041015625e-01 5.9477788209915161e-01</leafValues></_>
        <_>
          <internalNodes>
            0 -1 94 -1977650917 22085892 4122 -1588690685 -1610399742
            167944192 -2111732852 -221617510</internalNodes>
          <leafValues>
            -5.8052510023117065e-01 6.2355273962020874e-01</leafValues></_></weakClassifiers></_>
    <!-- stage 20 -->
    <_>
      <maxWeakCount>4</maxWeakCount>
      <stageThreshold>-1.3034126758575439e+00</stageThreshold>
      <weakClassifiers>
        <_>
          <internalNodes>
            0 -1 17 -372270211 -2097070060 1342181585 -602847232
            990640681 696254848 -494698319 -82771438</internalNodes>
          <leafValues>
            -6.2913906574249268e-01 5.0458717346191406e-01</leafValues></_>
        <_>
          <internalNodes>
            0 -1 34 1082263903 -1073659519 -2147409855 1431158855
            -1006562685 -2004351868 -929429631 -926921976</internalNodes>
          <leafValues>
            -5.8854889869689941e-01 6.0148453712463379e-01</leafValues></_>
        <_>
          <internalNodes>
            0 -1 100 -1873421317 -817265664 1409319312 1410531464
            -1744285038 840990736 -1459509632 1413974401</internalNodes>
          <leafValues>
            -6.7307949066162109e-01 5.6088638305664063e-01</leafValues></_>
        <_>
          <internalNodes>
            0 -1 83 1277529527 554862608 1090857729 1845510403
            -2113355736 1879097344 -2012106598 1503240194</internalNodes>
          <leafValues>
            -6.4661115407943726e-01 5.5657875537872314e-01</leafValues></_></weakClassifiers></_>
    <!-- stage 21 -->
    <_>
      <maxWeakCount>4</maxWeakCount>
      <stageThreshold>-3.9513561129570007e-01</stageThreshold>
      <weakClassifiers>
        <_>
          <internalNodes>
            0 -1 21 931330419 -870570983 311496721 -1744011256 8446054
            -871758776 -526868344 -33455727</internalNodes>
          <leafValues>
            -6.4383560419082642e-01 4.7368422150611877e-01</leafValues></_>
        <_>
          <internalNodes>
            0 -1 68 -1064184829 -434745077 421046485 1442906373 630952
            1091340417 -2147120927 1013612624</internalNodes>
          <leafValues>
            -7.0677554607391357e-01 4.5887526869773865e-01</leafValues></_>
        <_>
          <internalNodes>
            0 -1 22 281314167 1617036099 318767189 -988954291 1075348065
            8388610 327708231 894732384</internalNodes>
          <leafValues>
            -7.4944597482681274e-01 4.5723879337310791e-01</leafValues></_>
        <_>
          <internalNodes>
            0 -1 82 -2062468449 -1720680382 -2147483443 -1878949552
            755970 -1987469184 -2147446500 -1878802422</internalNodes>
          <leafValues>
            -5.7824909687042236e-01 6.4701598882675171e-01</leafValues></_></weakClassifiers></_>
    <!-- stage 22 -->
    <_>
      <maxWeakCount>4</maxWeakCount>
      <stageThreshold>-3.0101519823074341e-01</stageThreshold>
      <weakClassifiers>
        <_>
          <internalNodes>
            0 -1 111 1828498939 2130444287 2147483647 -689963265
            -2129962 2130706431 -65666 -9767049</internalNodes>
          <leafValues>
            -5.2380955219268799e-01 6.5644168853759766e-01</leafValues></_>
        <_>
          <internalNodes>
            0 -1 96 1392583425 -905445111 -1207873279 1376845831
            -1592995039 -503300096 -1073487718 550249136</internalNodes>
          <leafValues>
            -7.9117101430892944e-01 4.1122001409530640e-01</leafValues></_>
        <_>
          <internalNodes>
            0 -1 75 -532581864 429466240 1078010439 -1862205423 41607
            335544449 134250633 -1081458168</internalNodes>
          <leafValues>
            -6.2216031551361084e-01 5.6463974714279175e-01</leafValues></_>
        <_>
          <internalNodes>
            0 -1 24 -1841151661 -653715448 -1039662911 1210220609
            536989929 -259487720 -2013232267 146950536</internalNodes>
          <leafValues>
            -7.4651658535003662e-01 4.5811784267425537e-01</leafValues></_></weakClassifiers></_>
    <!-- stage 23 -->
    <_>
      <maxWeakCount>4</maxWeakCount>
      <stageThreshold>-3.4794047474861145e-01</stageThreshold>
      <weakClassifiers>
        <_>
          <internalNodes>
            0 -1 116 -4198657 -1392517378 -515 1929342975 -34082850
            -268435457 -16875522 -687931393</internalNodes>
          <leafValues>
            -5.2646237611770630e-01 6.7701864242553711e-01</leafValues></_>
        <_>
          <internalNodes>
            0 -1 84 55806149 1346718336 1073742089 -1752940479
            -234059448 -92274688 1107953804 547287704</internalNodes>
          <leafValues>
            -8.0611199140548706e-01 4.1470471024513245e-01</leafValues></_>
        <_>
          <internalNodes>
            0 -1 32 17023321 -2105540456 285278425 -44613540 -1071599603
            1216544912 -1711258936 35127296</internalNodes>
          <leafValues>
            -7.6489710807800293e-01 4.3908908963203430e-01</leafValues></_>
        <_>
          <internalNodes>
            0 -1 56 84001217 159383745 1157644296 -913997817 -2142108735
            131080 -1589640492 -1577049470</internalNodes>
          <leafValues>
            -6.5793621540069580e-01 5.8823657035827637e-01</leafValues></_></weakClassifiers></_>
    <!-- stage 24 -->
    <_>
      <maxWeakCount>4</maxWeakCount>
      <stageThreshold>-3.4985491633415222e-01</stageThreshold>
      <weakClassifiers>
        <_>
          <internalNodes>
            0 -1 39 1637981567 556451227 1476674831 -2147287027
            664903724 -962508604 -1853833190 -192723575</internalNodes>
          <leafValues>
            -6.7527675628662109e-01 4.1365462541580200e-01</leafValues></_>
        <_>
          <internalNodes>
            0 -1 104 1082638727 1040679447 19988752 1262649349
            -788486127 539066499 -1773977148 705332154</internalNodes>
          <leafValues>
            -7.0054179430007935e-01 4.5761030912399292e-01</leafValues></_>
        <_>
          <internalNodes>
            0 -1 95 499851 1880854928 328204609 478937372 -1073643398
            -2013167488 2099265667 1372246156</internalNodes>
          <leafValues>
            -6.7843216657638550e-01 5.0389742851257324e-01</leafValues></_>
        <_>
          <internalNodes>
            0 -1 59 1048547285 -268472323 -268468737 -181408262
            -1224790187 1341980599 -67141698 -93438299</internalNodes>
          <leafValues>
            -5.4268765449523926e-01 7.0513153076171875e-01</leafValues></_></weakClassifiers></_>
    <!-- stage 25 -->
    <_>
      <maxWeakCount>5</maxWeakCount>
      <stageThreshold>-5.7326656579971313e-01</stageThreshold>
      <weakClassifiers>
        <_>
          <internalNodes>
            0 -1 19 -99457 -17826178 -1577033 -262145 -134283299 -262145
            -2561 -1624230406</internalNodes>
          <leafValues>
            -4.8812663555145264e-01 7.4468082189559937e-01</leafValues></_>
        <_>
          <internalNodes>
            0 -1 27 -268518785 -42270854 -16777801 -268697602 1559721967
            -142705281 -35337 -1158488612</internalNodes>
          <leafValues>
            -5.0398480892181396e-01 6.3611435890197754e-01</leafValues></_>
        <_>
          <internalNodes>
            0 -1 93 -439549645 -2062540635 16843408 1080160402
            -2113884130 83920000 -1728003896 -1332273024</internalNodes>
          <leafValues>
            -5.8186662197113037e-01 5.8225595951080322e-01</leafValues></_>
        <_>
          <internalNodes>
            0 -1 49 -515746567 -1727983488 217347 -1929228269 575892
            -1332707197 -872166345 1797416960</internalNodes>
          <leafValues>
            -7.0970833301544189e-01 5.0083881616592407e-01</leafValues></_>
        <_>
          <internalNodes>
            0 -1 69 -1878912874 -1065254911 22 -737296256 134250673 4
            1224774536 -1320247224</internalNodes>
          <leafValues>
            -5.9380191564559937e-01 6.0179269313812256e-01</leafValues></_></weakClassifiers></_>
    <!-- stage 26 -->
    <_>
      <maxWeakCount>4</maxWeakCount>
      <stageThreshold>-4.5159667730331421e-01</stageThreshold>
      <weakClassifiers>
        <_>
          <internalNodes>
            0 -1 0 -2133120545 -787479869 114819 814747651 1082687698
            -2004877309 403407436 961815110</internalNodes>
          <leafValues>
            -7.2016459703445435e-01 3.4296029806137085e-01</leafValues></_>
        <_>
          <internalNodes>
            0 -1 45 -1466354305 377553040 -1711160200 -1191142400
            318835361 1556627586 -1594722678 134316529</internalNodes>
          <leafValues>
            -7.8621828556060791e-01 3.5671693086624146e-01</leafValues></_>
        <_>
          <internalNodes>
            0 -1 87 -456937425 -649559936 264585 1666916378 272630283
            -1735917427 -1610606328 -83437012</internalNodes>
          <leafValues>
            -5.3714287281036377e-01 6.2471121549606323e-01</leafValues></_>
        <_>
          <internalNodes>
            0 -1 33 1368510681 -1807710070 83902481 297926673 524719
            1753251971 537002266 1017413632</internalNodes>
          <leafValues>
            -6.1413103342056274e-01 6.0371100902557373e-01</leafValues></_></weakClassifiers></_>
    <!-- stage 27 -->
    <_>
      <maxWeakCount>3</maxWeakCount>
      <stageThreshold>-4.9894404411315918e-01</stageThreshold>
      <weakClassifiers>
        <_>
          <internalNodes>
            0 -1 66 -788188801 -511634431 420548615 496308273
            -2147420141 -1979708894 419537055 958177280</internalNodes>
          <leafValues>
            -5.9344261884689331e-01 4.6976745128631592e-01</leafValues></_>
        <_>
          <internalNodes>
            0 -1 89 -1308388854 1363187968 268451858 1377239168
            -536829807 64 268602049 -1698000758</internalNodes>
          <leafValues>
            -5.4671955108642578e-01 5.9379845857620239e-01</leafValues></_>
        <_>
          <internalNodes>
            0 -1 28 1694203769 -286302275 -1090519041 -33620225
            1878982582 -1249935369 -671088697 -344033282</internalNodes>
          <leafValues>
            -4.2199194431304932e-01 7.6669496297836304e-01</leafValues></_></weakClassifiers></_>
    <!-- stage 28 -->
    <_>
      <maxWeakCount>4</maxWeakCount>
      <stageThreshold>-5.7416063547134399e-01</stageThreshold>
      <weakClassifiers>
        <_>
          <internalNodes>
            0 -1 90 1662765243 1092519937 -2147221498 1249976386
            1212977771 -1744789496 1636313218 -1412591609</internalNodes>
          <leafValues>
            -6.3120567798614502e-01 4.1176471114158630e-01</leafValues></_>
        <_>
          <internalNodes>
            0 -1 3 -229636212 17039753 50331789 -393375594 -2147379068
            -1316224343 -653678348 811378310</internalNodes>
          <leafValues>
            -7.8876924514770508e-01 3.6531114578247070e-01</leafValues></_>
        <_>
          <internalNodes>
            0 -1 107 -1721643821 432128136 -1072496640 -1878535925
            -1341648384 -1341620224 -1879006839 283984267</internalNodes>
          <leafValues>
            -6.7224884033203125e-01 4.9016842246055603e-01</leafValues></_>
        <_>
          <internalNodes>
            0 -1 97 -2092137949 -200376256 131090 1611235329 -2130477048
            -938966976 1207961728 1380220995</internalNodes>
          <leafValues>
            -6.7898762226104736e-01 5.2263367176055908e-01</leafValues></_></weakClassifiers></_>
    <!-- stage 29 -->
    <_>
      <maxWeakCount>4</maxWeakCount>
      <stageThreshold>-4.5188862085342407e-01</stageThreshold>
      <weakClassifiers>
        <_>
          <internalNodes>
            0 -1 13 -746376673 -754810861 -2147475456 1375834130
            436814217 75497739 1208016961 1405067924</internalNodes>
          <leafValues>
            -6.7843139171600342e-01 3.5094338655471802e-01</leafValues></_>
        <_>
          <internalNodes>
            0 -1 16 390121955 50335764 -1874620399 -268435456 654856571
            33554569 1233127425 -209121127</internalNodes>
          <leafValues>
            -6.1333781480789185e-01 4.6657204627990723e-01</leafValues></_>
        <_>
          <internalNodes>
            0 -1 103 -1861122784 -985559031 -2139093626 -197062648
            -1878425599 -2147155968 -2147409264 -2092742230</internalNodes>
          <leafValues>
            -5.5879533290863037e-01 6.2216138839721680e-01</leafValues></_>
        <_>
          <internalNodes>
            0 -1 119 -787275302 1140965450 2117633 817893378 -1878228862
            1090519072 436240401 1395643010</internalNodes>
          <leafValues>
            -7.1060878038406372e-01 4.8020118474960327e-01</leafValues></_></weakClassifiers></_>
    <!-- stage 30 -->
    <_>
      <maxWeakCount>4</maxWeakCount>
      <stageThreshold>-3.8368290662765503e-01</stageThreshold>
      <weakClassifiers>
        <_>
          <internalNodes>
            0 -1 114 -4194353 -620757025 -196873 2130705852 -386
            -281051137 -545398786 -16781313</internalNodes>
          <leafValues>
            -4.5685279369354248e-01 7.9365080595016479e-01</leafValues></_>
        <_>
          <internalNodes>
            0 -1 6 -1978592422 -1878514478 1082393036 -1967058726
            -1593204103 819331 -1735728509 620896480</internalNodes>
          <leafValues>
            -7.8235405683517456e-01 3.8119125366210938e-01</leafValues></_>
        <_>
          <internalNodes>
            0 -1 35 201382304 2043021569 -2147446139 2097160450
            -1879015281 1184989312 -2013030014 1653055618</internalNodes>
          <leafValues>
            -7.0889997482299805e-01 4.0163505077362061e-01</leafValues></_>
        <_>
          <internalNodes>
            0 -1 109 1081974974 -1793015584 -1072562174 269025540
            33655341 268632130 1090554112 629583880</internalNodes>
          <leafValues>
            -7.0965641736984253e-01 4.7972038388252258e-01</leafValues></_></weakClassifiers></_>
    <!-- stage 31 -->
    <_>
      <maxWeakCount>4</maxWeakCount>
      <stageThreshold>-4.6844381093978882e-01</stageThreshold>
      <weakClassifiers>
        <_>
          <internalNodes>
            0 -1 74 543965219 164398087 -1740523169 1544568898
            -2025582588 -1064763392 -2004876976 -2002026103</internalNodes>
          <leafValues>
            -7.6106196641921997e-01 3.1292515993118286e-01</leafValues></_>
        <_>
          <internalNodes>
            0 -1 99 -1324973685 -1924759334 583 839090442 -1073630941
            -2113830780 1225097801 -82861942</internalNodes>
          <leafValues>
            -4.5876061916351318e-01 6.8051570653915405e-01</leafValues></_>
        <_>
          <internalNodes>
            0 -1 12 1078019515 -795651959 -1073348515 1073742210
            310919216 -1065287678 -1065184603 1107763714</internalNodes>
          <leafValues>
            -7.4942910671234131e-01 4.4573763012886047e-01</leafValues></_>
        <_>
          <internalNodes>
            0 -1 70 25330007 -2147417711 -2080276399 -1865416192
            12582912 -1878982518 1207961762 -803176448</internalNodes>
          <leafValues>
            -7.1245557069778442e-01 5.0770312547683716e-01</leafValues></_></weakClassifiers></_></stages>
  <features>
    <_>
      <rect>
        0 0 3 3</rect></_>
    <_>
      <rect>
        0 0 5 7</rect></_>
    <_>
      <rect>
        0 0 7 8</rect></_>
    <_>
      <rect>
        0 0 8 4</rect></_>
    <_>
      <rect>
        0 0 8 8</rect></_>
    <_>
      <rect>
        0 1 3 4</rect></_>
    <_>
      <rect>
        0 2 4 3</rect></_>
    <_>
      <rect>
        0 2 6 5</rect></_>
    <_>
      <rect>
        0 2 8 5</rect></_>
    <_>
      <rect>
        0 5 1 2</rect></_>
    <_>
      <rect>
        0 5 6 6</rect></_>
    <_>
      <rect>
        0 6 8 6</rect></_>
    <_>
      <rect>
        0 7 2 2</rect></_>
    <_>
      <rect>
        0 11 1 2</rect></_>
    <_>
      <rect>
        0 12 1 2</rect></_>
    <_>
      <rect>
        0 12 3 4</rect></_>
    <_>
      <rect>
        0 12 5 3</rect></_>
    <_>
      <rect>
        0 12 8 4</rect></_>
    <_>
      <rect>
        0 17 1 2</rect></_>
    <_>
      <rect>
        1 0 3 1</rect></_>
    <_>
      <rect>
        1 4 6 6</rect></_>
    <_>
      <rect>
        1 9 7 4</rect></_>
    <_>
      <rect>
        1 15 3 2</rect></_>
    <_>
      <rect>
        2 0 2 1</rect></_>
    <_>
      <rect>
        2 3 5 3</rect></_>
    <_>
      <rect>
        2 4 7 4</rect></_>
    <_>
      <rect>
        2 5 6 5</rect></_>
    <_>
      <rect>
        2 6 6 3</rect></_>
    <_>
      <rect>
        2 7 4 1</rect></_>
    <_>
      <rect>
        2 9 4 3</rect></_>
    <_>
      <rect>
        2 17 1 1</rect></_>
    <_>
      <rect>
        3 0 2 3</rect></_>
    <_>
      <rect>
        3 0 4 1</rect></_>
    <_>
      <rect>
        3 0 4 2</rect></_>
    <_>
      <rect>
        3 3 4 3</rect></_>
    <_>
      <rect>
        3 3 7 3</rect></_>
    <_>
      <rect>
        3 3 7 7</rect></_>
    <_>
      <rect>
        3 4 6 5</rect></_>
    <_>
      <rect>
        3 6 7 6</rect></_>
    <_>
      <rect>
        3 8 6 5</rect></_>
    <_>
      <rect>
        3 9 4 4</rect></_>
    <_>
      <rect>
        4 0 4 2</rect></_>
    <_>
      <rect>
        4 0 5 1</rect></_>
    <_>
      <rect>
        4 3 4 6</rect></_>
    <_>
      <rect>
        4 4 6 5</rect></_>
    <_>
      <rect>
        4 5 5 5</rect></_>
    <_>
      <rect>
        4 6 3 3</rect></_>
    <_>
      <rect>
        4 7 5 3</rect></_>
    <_>
      <rect>
        5 0 4 2</rect></_>
    <_>
      <rect>
        5 0 5 4</rect></_>
    <_>
      <rect>
        5 3 5 4</rect></_>
    <_>
      <rect>
        5 4 5 3</rect></_>
    <_>
      <rect>
        5 5 6 6</rect></_>
    <_>
      <rect>
        5 9 4 5</rect></_>
    <_>
      <rect>
        5 9 5 2</rect></_>
    <_>
      <rect>
        5 9 5 3</rect></_>
    <_>
      <rect>
        5 10 3 2</rect></_>
    <_>
      <rect>
        6 6 6 6</rect></_>
    <_>
      <rect>
        6 8 6 4</rect></_>
    <_>
      <rect>
        6 11 3 2</rect></_>
    <_>
      <rect>
        6 18 5 2</rect></_>
    <_>
      <rect>
        7 0 2 1</rect></_>
    <_>
      <rect>
        7 8 2 2</rect></_>
    <_>
      <rect>
        7 8 5 4</rect></_>
    <_>
      <rect>
        7 9 4 3</rect></_>
    <_>
      <rect>
        7 15 5 3</rect></_>
    <_>
      <rect>
        8 0 3 1</rect></_>
    <_>
      <rect>
        8 0 5 5</rect></_>
    <_>
      <rect>
        8 6 5 3</rect></_>
    <_>
      <rect>
        8 9 1 1</rect></_>
    <_>
      <rect>
        8 12 3 1</rect></_>
    <_>
      <rect>
        9 1 5 4</rect></_>
    <_>
      <rect>
        9 4 1 1</rect></_>
    <_>
      <rect>
        9 7 5 3</rect></_>
    <_>
      <rect>
        9 10 3 3</rect></_>
    <_>
      <rect>
        10 5 1 1</rect></_>
    <_>
      <rect>
        10 6 4 6</rect></_>
    <_>
      <rect>
        10 9 1 1</rect></_>
    <_>
      <rect>
        10 10 1 1</rect></_>
    <_>
      <rect>
        11 7 1 1</rect></_>
    <_>
      <rect>
        11 9 3 4</rect></_>
    <_>
      <rect>
        11 10 3 1</rect></_>
    <_>
      <rect>
        11 10 3 2</rect></_>
    <_>
      <rect>
        11 12 4 4</rect></_>
    <_>
      <rect>
        12 0 4 6</rect></_>
    <_>
      <rect>
        12 2 4 3</rect></_>
    <_>
      <rect>
        12 2 4 5</rect></_>
    <_>
      <rect>
        12 5 2 3</rect></_>
    <_>
      <rect>
        12 9 1 1</rect></_>
    <_>
      <rect>
        12 10 1 1</rect></_>
    <_>
      <rect>
        13 13 3 3</rect></_>
    <_>
      <rect>
        14 9 1 1</rect></_>
    <_>
      <rect>
        14 10 1 1</rect></_>
    <_>
      <rect>
        14 10 2 3</rect></_>
    <_>
      <rect>
        14 11 2 4</rect></_>
    <_>
      <rect>
        14 13 2 2</rect></_>
    <_>
      <rect>
        15 0 3 3</rect></_>
    <_>
      <rect>
        15 8 2 5</rect></_>
    <_>
      <rect>
        15 13 3 3</rect></_>
    <_>
      <rect>
        15 16 1 2</rect></_>
    <_>
      <rect>
        15 16 3 2</rect></_>
    <_>
      <rect>
        16 15 1 1</rect></_>
    <_>
      <rect>
        16 17 2 2</rect></_>
    <_>
      <rect>
        17 8 1 1</rect></_>
    <_>
      <rect>
        17 15 2 3</rect></_>
    <_>
      <rect>
        18 0 2 3</rect></_>
    <_>
      <rect>
        18 7 2 2</rect></_>
    <_>
      <rect>
        18 10 2 3</rect></_>
    <_>
      <rect>
        18 12 2 2</rect></_>
    <_>
      <rect>
        18 14 2 3</rect></_>
    <_>
      <rect>
        19 5 1 2</rect></_>
    <_>
      <rect>
        20 8 1 2</rect></_>
    <_>
      <rect>
        21 2 1 4</rect></_>
    <_>
      <rect>
        21 10 1 1</rect></_>
    <_>
      <rect>
        21 10 1 2</rect></_>
    <_>
      <rect>
        21 11 1 2</rect></_>
    <_>
      <rect>
        21 12 1 2</rect></_>
    <_>
      <rect>
        21 13 1 2</rect></_>
    <_>
      <rect>
        21 14 1 1</rect></_>
    <_>
      <rect>
        21 18 1 1</rect></_></features></cascade>
</opencv_storage>
