<?xml version="1.0"?>
<opencv_storage>
<stage18>
  <maxWeakCount>5</maxWeakCount>
  <stageThreshold>-3.9699590206146240e-01</stageThreshold>
  <weakClassifiers>
    <_>
      <internalNodes>
        0 -1 2876 -335561857 -16810113 -257 -1073774593 -268476801
        -17533081 1878906613 -68173829</internalNodes>
      <leafValues>
        -5.4237288236618042e-01 6.7469877004623413e-01</leafValues></_>
    <_>
      <internalNodes>
        0 -1 7255 -311459152 -109052161 -32770 1949204478 -134349371
        -402653313 2013216686 -1787136772</internalNodes>
      <leafValues>
        -4.6644905209541321e-01 7.2351199388504028e-01</leafValues></_>
    <_>
      <internalNodes>
        0 -1 1796 -1006393225 -1409088639 -1879047927 1351090177
        -1199428486 -65003384 -1040053655 -2102867837</internalNodes>
      <leafValues>
        -5.6846719980239868e-01 6.0285586118698120e-01</leafValues></_>
    <_>
      <internalNodes>
        0 -1 6668 -167554944 -2113863552 0 -1325137920 -1879015296
        -2139095032 1107361921 -2004156280</internalNodes>
      <leafValues>
        -6.1751186847686768e-01 6.4805716276168823e-01</leafValues></_>
    <_>
      <internalNodes>
        0 -1 2928 1719656253 796917631 -285736977 -868481 -16566
        -302096394 -138543115 -1371932291</internalNodes>
      <leafValues>
        -5.6347906589508057e-01 6.6711223125457764e-01</leafValues></_></weakClassifiers></stage18>
</opencv_storage>
