<?xml version="1.0"?>
<opencv_storage>
<stage30>
  <maxWeakCount>4</maxWeakCount>
  <stageThreshold>-3.8368290662765503e-01</stageThreshold>
  <weakClassifiers>
    <_>
      <internalNodes>
        0 -1 8435 -4194353 -620757025 -196873 2130705852 -386 -281051137
        -545398786 -16781313</internalNodes>
      <leafValues>
        -4.5685279369354248e-01 7.9365080595016479e-01</leafValues></_>
    <_>
      <internalNodes>
        0 -1 143 -1978592422 -1878514478 1082393036 -1967058726
        -1593204103 819331 -1735728509 620896480</internalNodes>
      <leafValues>
        -7.8235405683517456e-01 3.8119125366210938e-01</leafValues></_>
    <_>
      <internalNodes>
        0 -1 2222 201382304 2043021569 -2147446139 2097160450
        -1879015281 1184989312 -2013030014 1653055618</internalNodes>
      <leafValues>
        -7.0889997482299805e-01 4.0163505077362061e-01</leafValues></_>
    <_>
      <internalNodes>
        0 -1 8163 1081974974 -1793015584 -1072562174 269025540 33655341
        268632130 1090554112 629583880</internalNodes>
      <leafValues>
        -7.0965641736984253e-01 4.7972038388252258e-01</leafValues></_></weakClassifiers></stage30>
</opencv_storage>
